digraph Tree {
node [shape=box] ;
0 [label="med_hhinc2016 <= 48926.5\nmse = 15.965\nsamples = 36305\nvalue = 78.021"] ;
1 [label="med_hhinc2016 <= 34318.5\nmse = 13.206\nsamples = 16920\nvalue = 75.703"] ;
0 -> 1 [labeldistance=2.5, labelangle=45, headlabel="True"] ;
2 [label="foreign_share2010 <= 0.236\nmse = 13.141\nsamples = 6314\nvalue = 73.942"] ;
1 -> 2 ;
3 [label="med_hhinc2016 <= 26348.5\nmse = 11.043\nsamples = 4994\nvalue = 73.206"] ;
2 -> 3 ;
4 [label="frac_coll_plus2010 <= 0.185\nmse = 10.832\nsamples = 1921\nvalue = 71.956"] ;
3 -> 4 ;
5 [label="foreign_share2010 <= 0.086\nmse = 10.098\nsamples = 1690\nvalue = 71.662"] ;
4 -> 5 ;
6 [label="jobs_total_5mi_2015 <= 11590.5\nmse = 9.322\nsamples = 1248\nvalue = 71.262"] ;
5 -> 6 ;
7 [label="mse = 10.005\nsamples = 223\nvalue = 73.014"] ;
6 -> 7 ;
8 [label="mse = 8.36\nsamples = 1025\nvalue = 70.881"] ;
6 -> 8 ;
9 [label="popdensity2010 <= 13428.016\nmse = 10.56\nsamples = 442\nvalue = 72.793"] ;
5 -> 9 ;
10 [label="mse = 9.822\nsamples = 377\nvalue = 72.415"] ;
9 -> 10 ;
11 [label="mse = 9.195\nsamples = 65\nvalue = 74.988"] ;
9 -> 11 ;
12 [label="singleparent_share2010 <= 0.405\nmse = 10.949\nsamples = 231\nvalue = 74.106"] ;
4 -> 12 ;
13 [label="czname <= 378.5\nmse = 10.412\nsamples = 38\nvalue = 76.634"] ;
12 -> 13 ;
14 [label="mse = 8.515\nsamples = 20\nvalue = 74.98"] ;
13 -> 14 ;
15 [label="mse = 6.102\nsamples = 18\nvalue = 78.472"] ;
13 -> 15 ;
16 [label="frac_coll_plus2010 <= 0.297\nmse = 9.548\nsamples = 193\nvalue = 73.608"] ;
12 -> 16 ;
17 [label="mse = 8.729\nsamples = 151\nvalue = 73.142"] ;
16 -> 17 ;
18 [label="mse = 8.914\nsamples = 42\nvalue = 75.281"] ;
16 -> 18 ;
19 [label="frac_coll_plus2010 <= 0.154\nmse = 9.587\nsamples = 3073\nvalue = 73.988"] ;
3 -> 19 ;
20 [label="jobs_highpay_5mi_2015 <= 2795.5\nmse = 8.766\nsamples = 2149\nvalue = 73.547"] ;
19 -> 20 ;
21 [label="popdensity2010 <= 21.046\nmse = 8.046\nsamples = 626\nvalue = 74.685"] ;
20 -> 21 ;
22 [label="mse = 8.524\nsamples = 74\nvalue = 76.551"] ;
21 -> 22 ;
23 [label="mse = 7.453\nsamples = 552\nvalue = 74.435"] ;
21 -> 23 ;
24 [label="foreign_share2010 <= 0.088\nmse = 8.31\nsamples = 1523\nvalue = 73.079"] ;
20 -> 24 ;
25 [label="mse = 8.139\nsamples = 975\nvalue = 72.507"] ;
24 -> 25 ;
26 [label="mse = 6.992\nsamples = 548\nvalue = 74.098"] ;
24 -> 26 ;
27 [label="popdensity2010 <= 69.594\nmse = 9.995\nsamples = 924\nvalue = 75.013"] ;
19 -> 27 ;
28 [label="job_density_2013 <= 0.4\nmse = 16.274\nsamples = 49\nvalue = 78.273"] ;
27 -> 28 ;
29 [label="mse = 16.098\nsamples = 5\nvalue = 84.78"] ;
28 -> 29 ;
30 [label="mse = 10.936\nsamples = 44\nvalue = 77.534"] ;
28 -> 30 ;
31 [label="foreign_share2010 <= 0.03\nmse = 9.015\nsamples = 875\nvalue = 74.83"] ;
27 -> 31 ;
32 [label="mse = 8.053\nsamples = 295\nvalue = 73.728"] ;
31 -> 32 ;
33 [label="mse = 8.572\nsamples = 580\nvalue = 75.391"] ;
31 -> 33 ;
34 [label="foreign_share2010 <= 0.447\nmse = 11.281\nsamples = 1320\nvalue = 76.726"] ;
2 -> 34 ;
35 [label="frac_coll_plus2010 <= 0.176\nmse = 9.986\nsamples = 975\nvalue = 76.137"] ;
34 -> 35 ;
36 [label="jobs_highpay_5mi_2015 <= 732.0\nmse = 8.948\nsamples = 849\nvalue = 75.877"] ;
35 -> 36 ;
37 [label="tract <= 254.0\nmse = 11.293\nsamples = 20\nvalue = 79.725"] ;
36 -> 37 ;
38 [label="mse = 14.592\nsamples = 6\nvalue = 83.067"] ;
37 -> 38 ;
39 [label="mse = 3.042\nsamples = 14\nvalue = 78.293"] ;
37 -> 39 ;
40 [label="med_hhinc2016 <= 25293.5\nmse = 8.525\nsamples = 829\nvalue = 75.784"] ;
36 -> 40 ;
41 [label="mse = 9.116\nsamples = 225\nvalue = 74.874"] ;
40 -> 41 ;
42 [label="mse = 7.882\nsamples = 604\nvalue = 76.123"] ;
40 -> 42 ;
43 [label="singleparent_share2010 <= 0.213\nmse = 13.448\nsamples = 126\nvalue = 77.89"] ;
35 -> 43 ;
44 [label="jobs_total_5mi_2015 <= 513853.0\nmse = 8.027\nsamples = 16\nvalue = 81.088"] ;
43 -> 44 ;
45 [label="mse = 2.191\nsamples = 11\nvalue = 79.6"] ;
44 -> 45 ;
46 [label="mse = 5.29\nsamples = 5\nvalue = 84.36"] ;
44 -> 46 ;
47 [label="job_density_2013 <= 7680.751\nmse = 12.534\nsamples = 110\nvalue = 77.425"] ;
43 -> 47 ;
48 [label="mse = 8.833\nsamples = 85\nvalue = 78.015"] ;
47 -> 48 ;
49 [label="mse = 19.913\nsamples = 25\nvalue = 75.42"] ;
47 -> 49 ;
50 [label="foreign_share2010 <= 0.637\nmse = 11.19\nsamples = 345\nvalue = 78.39"] ;
34 -> 50 ;
51 [label="med_hhinc2016 <= 26429.0\nmse = 10.374\nsamples = 278\nvalue = 77.89"] ;
50 -> 51 ;
52 [label="tract <= 874.0\nmse = 9.468\nsamples = 81\nvalue = 76.642"] ;
51 -> 52 ;
53 [label="mse = 12.469\nsamples = 17\nvalue = 74.388"] ;
52 -> 53 ;
54 [label="mse = 6.964\nsamples = 64\nvalue = 77.241"] ;
52 -> 54 ;
55 [label="job_density_2013 <= 165.674\nmse = 9.843\nsamples = 197\nvalue = 78.403"] ;
51 -> 55 ;
56 [label="mse = 9.931\nsamples = 6\nvalue = 83.417"] ;
55 -> 56 ;
57 [label="mse = 9.026\nsamples = 191\nvalue = 78.246"] ;
55 -> 57 ;
58 [label="singleparent_share2010 <= 0.191\nmse = 9.224\nsamples = 67\nvalue = 80.467"] ;
50 -> 58 ;
59 [label="popdensity2010 <= 71090.91\nmse = 4.167\nsamples = 8\nvalue = 84.5"] ;
58 -> 59 ;
60 [label="mse = 2.368\nsamples = 6\nvalue = 85.383"] ;
59 -> 60 ;
61 [label="mse = 0.203\nsamples = 2\nvalue = 81.85"] ;
59 -> 61 ;
62 [label="poor_share2010 <= 0.25\nmse = 7.405\nsamples = 59\nvalue = 79.92"] ;
58 -> 62 ;
63 [label="mse = 5.964\nsamples = 24\nvalue = 81.442"] ;
62 -> 63 ;
64 [label="mse = 5.718\nsamples = 35\nvalue = 78.877"] ;
62 -> 64 ;
65 [label="foreign_share2010 <= 0.319\nmse = 10.301\nsamples = 10606\nvalue = 76.751"] ;
1 -> 65 ;
66 [label="med_hhinc2016 <= 41572.0\nmse = 9.329\nsamples = 9303\nvalue = 76.403"] ;
65 -> 66 ;
67 [label="frac_coll_plus2010 <= 0.144\nmse = 9.216\nsamples = 4409\nvalue = 75.66"] ;
66 -> 67 ;
68 [label="singleparent_share2010 <= 0.4\nmse = 8.656\nsamples = 2268\nvalue = 75.055"] ;
67 -> 68 ;
69 [label="popdensity2010 <= 13.668\nmse = 8.908\nsamples = 1101\nvalue = 75.7"] ;
68 -> 69 ;
70 [label="mse = 13.685\nsamples = 65\nvalue = 78.145"] ;
69 -> 70 ;
71 [label="mse = 8.209\nsamples = 1036\nvalue = 75.546"] ;
69 -> 71 ;
72 [label="foreign_share2010 <= 0.085\nmse = 7.657\nsamples = 1167\nvalue = 74.447"] ;
68 -> 72 ;
73 [label="mse = 7.795\nsamples = 751\nvalue = 74.051"] ;
72 -> 73 ;
74 [label="mse = 6.616\nsamples = 416\nvalue = 75.16"] ;
72 -> 74 ;
75 [label="singleparent_share2010 <= 0.531\nmse = 9.011\nsamples = 2141\nvalue = 76.3"] ;
67 -> 75 ;
76 [label="popdensity2010 <= 25.176\nmse = 8.756\nsamples = 1582\nvalue = 76.672"] ;
75 -> 76 ;
77 [label="mse = 11.844\nsamples = 116\nvalue = 78.637"] ;
76 -> 77 ;
78 [label="mse = 8.182\nsamples = 1466\nvalue = 76.517"] ;
76 -> 78 ;
79 [label="foreign_share2010 <= 0.086\nmse = 8.232\nsamples = 559\nvalue = 75.248"] ;
75 -> 79 ;
80 [label="mse = 7.544\nsamples = 336\nvalue = 74.574"] ;
79 -> 80 ;
81 [label="mse = 7.551\nsamples = 223\nvalue = 76.263"] ;
79 -> 81 ;
82 [label="frac_coll_plus2010 <= 0.214\nmse = 8.485\nsamples = 4894\nvalue = 77.072"] ;
66 -> 82 ;
83 [label="popdensity2010 <= 75.562\nmse = 8.011\nsamples = 3375\nvalue = 76.715"] ;
82 -> 83 ;
84 [label="popdensity2010 <= 21.251\nmse = 8.731\nsamples = 931\nvalue = 77.825"] ;
83 -> 84 ;
85 [label="mse = 8.683\nsamples = 315\nvalue = 78.817"] ;
84 -> 85 ;
86 [label="mse = 7.996\nsamples = 616\nvalue = 77.318"] ;
84 -> 86 ;
87 [label="frac_coll_plus2010 <= 0.122\nmse = 7.088\nsamples = 2444\nvalue = 76.292"] ;
83 -> 87 ;
88 [label="mse = 7.342\nsamples = 795\nvalue = 75.646"] ;
87 -> 88 ;
89 [label="mse = 6.669\nsamples = 1649\nvalue = 76.603"] ;
87 -> 89 ;
90 [label="frac_coll_plus2010 <= 0.319\nmse = 8.622\nsamples = 1519\nvalue = 77.867"] ;
82 -> 90 ;
91 [label="job_density_2013 <= 41.011\nmse = 8.155\nsamples = 1019\nvalue = 77.511"] ;
90 -> 91 ;
92 [label="mse = 12.002\nsamples = 118\nvalue = 79.178"] ;
91 -> 92 ;
93 [label="mse = 7.239\nsamples = 901\nvalue = 77.292"] ;
91 -> 93 ;
94 [label="singleparent_share2010 <= 0.459\nmse = 8.789\nsamples = 500\nvalue = 78.593"] ;
90 -> 94 ;
95 [label="mse = 7.966\nsamples = 328\nvalue = 79.111"] ;
94 -> 95 ;
96 [label="mse = 8.871\nsamples = 172\nvalue = 77.605"] ;
94 -> 96 ;
97 [label="foreign_share2010 <= 0.574\nmse = 10.193\nsamples = 1303\nvalue = 79.238"] ;
65 -> 97 ;
98 [label="frac_coll_plus2010 <= 0.161\nmse = 8.78\nsamples = 1131\nvalue = 78.81"] ;
97 -> 98 ;
99 [label="foreign_share2010 <= 0.451\nmse = 8.128\nsamples = 772\nvalue = 78.292"] ;
98 -> 99 ;
100 [label="state <= 13.5\nmse = 6.821\nsamples = 523\nvalue = 77.836"] ;
99 -> 100 ;
101 [label="mse = 7.081\nsamples = 325\nvalue = 78.257"] ;
100 -> 101 ;
102 [label="mse = 5.627\nsamples = 198\nvalue = 77.144"] ;
100 -> 102 ;
103 [label="county <= 1087.0\nmse = 9.515\nsamples = 249\nvalue = 79.251"] ;
99 -> 103 ;
104 [label="mse = 8.048\nsamples = 70\nvalue = 77.597"] ;
103 -> 104 ;
105 [label="mse = 8.6\nsamples = 179\nvalue = 79.898"] ;
103 -> 105 ;
106 [label="singleparent_share2010 <= 0.392\nmse = 8.362\nsamples = 359\nvalue = 79.925"] ;
98 -> 106 ;
107 [label="czname <= 285.5\nmse = 8.166\nsamples = 176\nvalue = 80.634"] ;
106 -> 107 ;
108 [label="mse = 5.964\nsamples = 39\nvalue = 79.151"] ;
107 -> 108 ;
109 [label="mse = 7.99\nsamples = 137\nvalue = 81.055"] ;
107 -> 109 ;
110 [label="popdensity2010 <= 62514.186\nmse = 7.601\nsamples = 183\nvalue = 79.243"] ;
106 -> 110 ;
111 [label="mse = 6.698\nsamples = 154\nvalue = 78.877"] ;
110 -> 111 ;
112 [label="mse = 7.923\nsamples = 29\nvalue = 81.183"] ;
110 -> 112 ;
113 [label="popdensity2010 <= 122752.449\nmse = 10.397\nsamples = 172\nvalue = 82.047"] ;
97 -> 113 ;
114 [label="frac_coll_plus2010 <= 0.076\nmse = 9.837\nsamples = 165\nvalue = 81.855"] ;
113 -> 114 ;
115 [label="ln_wage_growth_hs_grad <= -0.163\nmse = 8.408\nsamples = 10\nvalue = 78.88"] ;
114 -> 115 ;
116 [label="mse = 0.0\nsamples = 1\nvalue = 86.2"] ;
115 -> 116 ;
117 [label="mse = 2.727\nsamples = 9\nvalue = 78.067"] ;
115 -> 117 ;
118 [label="traveltime15_2010 <= 0.027\nmse = 9.322\nsamples = 155\nvalue = 82.046"] ;
114 -> 118 ;
119 [label="mse = 0.062\nsamples = 2\nvalue = 88.25"] ;
118 -> 119 ;
120 [label="mse = 8.933\nsamples = 153\nvalue = 81.965"] ;
118 -> 120 ;
121 [label="poor_share2010 <= 0.205\nmse = 2.242\nsamples = 7\nvalue = 86.571"] ;
113 -> 121 ;
122 [label="ann_avg_job_growth_2004_2013 <= 0.035\nmse = 0.123\nsamples = 2\nvalue = 84.45"] ;
121 -> 122 ;
123 [label="mse = 0.0\nsamples = 1\nvalue = 84.8"] ;
122 -> 123 ;
124 [label="mse = 0.0\nsamples = 1\nvalue = 84.1"] ;
122 -> 124 ;
125 [label="popdensity2010 <= 154837.281\nmse = 0.57\nsamples = 5\nvalue = 87.42"] ;
121 -> 125 ;
126 [label="mse = 0.247\nsamples = 3\nvalue = 86.9"] ;
125 -> 126 ;
127 [label="mse = 0.04\nsamples = 2\nvalue = 88.2"] ;
125 -> 127 ;
128 [label="frac_coll_plus2010 <= 0.339\nmse = 9.591\nsamples = 19385\nvalue = 80.044"] ;
0 -> 128 [labeldistance=2.5, labelangle=-45, headlabel="False"] ;
129 [label="med_hhinc2016 <= 59690.5\nmse = 8.194\nsamples = 11441\nvalue = 79.041"] ;
128 -> 129 ;
130 [label="foreign_share2010 <= 0.3\nmse = 8.274\nsamples = 5872\nvalue = 78.38"] ;
129 -> 130 ;
131 [label="popdensity2010 <= 65.381\nmse = 7.916\nsamples = 5185\nvalue = 78.162"] ;
130 -> 131 ;
132 [label="traveltime15_2010 <= 0.22\nmse = 10.05\nsamples = 1072\nvalue = 79.251"] ;
131 -> 132 ;
133 [label="state <= 0.5\nmse = 10.091\nsamples = 288\nvalue = 78.289"] ;
132 -> 133 ;
134 [label="mse = 11.168\nsamples = 9\nvalue = 74.089"] ;
133 -> 134 ;
135 [label="mse = 9.469\nsamples = 279\nvalue = 78.425"] ;
133 -> 135 ;
136 [label="singleparent_share2010 <= 0.307\nmse = 9.57\nsamples = 784\nvalue = 79.605"] ;
132 -> 136 ;
137 [label="mse = 9.39\nsamples = 633\nvalue = 79.86"] ;
136 -> 137 ;
138 [label="mse = 8.908\nsamples = 151\nvalue = 78.536"] ;
136 -> 138 ;
139 [label="frac_coll_plus2010 <= 0.192\nmse = 6.97\nsamples = 4113\nvalue = 77.879"] ;
131 -> 139 ;
140 [label="frac_coll_plus2010 <= 0.134\nmse = 6.601\nsamples = 1897\nvalue = 77.288"] ;
139 -> 140 ;
141 [label="mse = 6.818\nsamples = 740\nvalue = 76.804"] ;
140 -> 141 ;
142 [label="mse = 6.217\nsamples = 1157\nvalue = 77.597"] ;
140 -> 142 ;
143 [label="poor_share2010 <= 0.086\nmse = 6.731\nsamples = 2216\nvalue = 78.384"] ;
139 -> 143 ;
144 [label="mse = 5.751\nsamples = 940\nvalue = 78.787"] ;
143 -> 144 ;
145 [label="mse = 7.245\nsamples = 1276\nvalue = 78.088"] ;
143 -> 145 ;
146 [label="foreign_share2010 <= 0.54\nmse = 7.916\nsamples = 687\nvalue = 80.024"] ;
130 -> 146 ;
147 [label="state <= 39.0\nmse = 7.085\nsamples = 576\nvalue = 79.743"] ;
146 -> 147 ;
148 [label="frac_coll_plus2010 <= 0.167\nmse = 7.026\nsamples = 525\nvalue = 79.915"] ;
147 -> 148 ;
149 [label="mse = 6.829\nsamples = 236\nvalue = 79.268"] ;
148 -> 149 ;
150 [label="mse = 6.565\nsamples = 289\nvalue = 80.444"] ;
148 -> 150 ;
151 [label="tract <= 12366.5\nmse = 4.242\nsamples = 51\nvalue = 77.969"] ;
147 -> 151 ;
152 [label="mse = 3.073\nsamples = 49\nvalue = 78.188"] ;
151 -> 152 ;
153 [label="mse = 2.89\nsamples = 2\nvalue = 72.6"] ;
151 -> 153 ;
154 [label="poor_share2010 <= 0.204\nmse = 9.694\nsamples = 111\nvalue = 81.481"] ;
146 -> 154 ;
155 [label="foreign_share2010 <= 0.542\nmse = 8.184\nsamples = 86\nvalue = 82.191"] ;
154 -> 155 ;
156 [label="mse = 3.422\nsamples = 2\nvalue = 88.55"] ;
155 -> 156 ;
157 [label="mse = 7.311\nsamples = 84\nvalue = 82.039"] ;
155 -> 157 ;
158 [label="foreign_share2010 <= 0.713\nmse = 7.198\nsamples = 25\nvalue = 79.04"] ;
154 -> 158 ;
159 [label="mse = 6.63\nsamples = 20\nvalue = 79.705"] ;
158 -> 159 ;
160 [label="mse = 0.622\nsamples = 5\nvalue = 76.38"] ;
158 -> 160 ;
161 [label="foreign_share2010 <= 0.234\nmse = 7.163\nsamples = 5569\nvalue = 79.739"] ;
129 -> 161 ;
162 [label="popdensity2010 <= 74.38\nmse = 6.928\nsamples = 4467\nvalue = 79.476"] ;
161 -> 162 ;
163 [label="state <= 47.5\nmse = 8.778\nsamples = 763\nvalue = 80.412"] ;
162 -> 163 ;
164 [label="state <= 33.5\nmse = 8.778\nsamples = 712\nvalue = 80.258"] ;
163 -> 164 ;
165 [label="mse = 8.157\nsamples = 511\nvalue = 80.636"] ;
164 -> 165 ;
166 [label="mse = 9.068\nsamples = 201\nvalue = 79.297"] ;
164 -> 166 ;
167 [label="czname <= 154.5\nmse = 3.795\nsamples = 51\nvalue = 82.571"] ;
163 -> 167 ;
168 [label="mse = 0.202\nsamples = 2\nvalue = 78.15"] ;
167 -> 168 ;
169 [label="mse = 3.111\nsamples = 49\nvalue = 82.751"] ;
167 -> 169 ;
170 [label="frac_coll_plus2010 <= 0.25\nmse = 6.329\nsamples = 3704\nvalue = 79.283"] ;
162 -> 170 ;
171 [label="poor_share2010 <= 0.096\nmse = 6.342\nsamples = 1842\nvalue = 78.749"] ;
170 -> 171 ;
172 [label="mse = 6.248\nsamples = 1300\nvalue = 78.997"] ;
171 -> 172 ;
173 [label="mse = 6.068\nsamples = 542\nvalue = 78.154"] ;
171 -> 173 ;
174 [label="poor_share2010 <= 0.102\nmse = 5.753\nsamples = 1862\nvalue = 79.812"] ;
170 -> 174 ;
175 [label="mse = 5.348\nsamples = 1546\nvalue = 80.001"] ;
174 -> 175 ;
176 [label="mse = 6.716\nsamples = 316\nvalue = 78.891"] ;
174 -> 176 ;
177 [label="med_hhinc2016 <= 73618.0\nmse = 6.702\nsamples = 1102\nvalue = 80.803"] ;
161 -> 177 ;
178 [label="foreign_share2010 <= 0.41\nmse = 7.082\nsamples = 706\nvalue = 80.432"] ;
177 -> 178 ;
179 [label="med_hhinc2016 <= 60783.0\nmse = 5.941\nsamples = 472\nvalue = 80.096"] ;
178 -> 179 ;
180 [label="mse = 7.478\nsamples = 49\nvalue = 78.773"] ;
179 -> 180 ;
181 [label="mse = 5.537\nsamples = 423\nvalue = 80.25"] ;
179 -> 181 ;
182 [label="singleparent_share2010 <= 0.391\nmse = 8.7\nsamples = 234\nvalue = 81.108"] ;
178 -> 182 ;
183 [label="mse = 7.605\nsamples = 178\nvalue = 81.452"] ;
182 -> 183 ;
184 [label="mse = 10.604\nsamples = 56\nvalue = 80.012"] ;
182 -> 184 ;
185 [label="frac_coll_plus2010 <= 0.158\nmse = 5.34\nsamples = 396\nvalue = 81.464"] ;
177 -> 185 ;
186 [label="poor_share2010 <= 0.231\nmse = 5.41\nsamples = 38\nvalue = 80.124"] ;
185 -> 186 ;
187 [label="mse = 3.949\nsamples = 35\nvalue = 79.777"] ;
186 -> 187 ;
188 [label="mse = 4.709\nsamples = 3\nvalue = 84.167"] ;
186 -> 188 ;
189 [label="med_hhinc2016 <= 73821.5\nmse = 5.122\nsamples = 358\nvalue = 81.607"] ;
185 -> 189 ;
190 [label="mse = 3.71\nsamples = 7\nvalue = 84.714"] ;
189 -> 190 ;
191 [label="mse = 4.954\nsamples = 351\nvalue = 81.545"] ;
189 -> 191 ;
192 [label="med_hhinc2016 <= 82285.5\nmse = 8.073\nsamples = 7944\nvalue = 81.487"] ;
128 -> 192 ;
193 [label="foreign_share2010 <= 0.248\nmse = 7.552\nsamples = 4328\nvalue = 80.689"] ;
192 -> 193 ;
194 [label="med_hhinc2016 <= 67263.0\nmse = 7.262\nsamples = 3654\nvalue = 80.45"] ;
193 -> 194 ;
195 [label="jobs_highpay_5mi_2015 <= 1241.0\nmse = 7.864\nsamples = 1959\nvalue = 79.934"] ;
194 -> 195 ;
196 [label="czname <= 28.0\nmse = 7.434\nsamples = 105\nvalue = 81.77"] ;
195 -> 196 ;
197 [label="mse = 5.092\nsamples = 4\nvalue = 77.35"] ;
196 -> 197 ;
198 [label="mse = 6.722\nsamples = 101\nvalue = 81.946"] ;
196 -> 198 ;
199 [label="frac_coll_plus2010 <= 0.485\nmse = 7.687\nsamples = 1854\nvalue = 79.83"] ;
195 -> 199 ;
200 [label="mse = 7.417\nsamples = 1332\nvalue = 79.559"] ;
199 -> 200 ;
201 [label="mse = 7.709\nsamples = 522\nvalue = 80.523"] ;
199 -> 201 ;
202 [label="frac_coll_plus2010 <= 0.48\nmse = 5.903\nsamples = 1695\nvalue = 81.046"] ;
194 -> 202 ;
203 [label="popdensity2010 <= 3922.866\nmse = 5.682\nsamples = 1027\nvalue = 80.7"] ;
202 -> 203 ;
204 [label="mse = 5.77\nsamples = 722\nvalue = 80.952"] ;
203 -> 204 ;
205 [label="mse = 4.965\nsamples = 305\nvalue = 80.103"] ;
203 -> 205 ;
206 [label="singleparent_share2010 <= 0.323\nmse = 5.775\nsamples = 668\nvalue = 81.579"] ;
202 -> 206 ;
207 [label="mse = 5.61\nsamples = 530\nvalue = 81.789"] ;
206 -> 207 ;
208 [label="mse = 5.587\nsamples = 138\nvalue = 80.772"] ;
206 -> 208 ;
209 [label="frac_coll_plus2010 <= 0.368\nmse = 7.142\nsamples = 674\nvalue = 81.983"] ;
193 -> 209 ;
210 [label="foreign_share2010 <= 0.443\nmse = 6.63\nsamples = 121\nvalue = 80.871"] ;
209 -> 210 ;
211 [label="job_density_2013 <= 1638.116\nmse = 4.903\nsamples = 79\nvalue = 80.29"] ;
210 -> 211 ;
212 [label="mse = 4.209\nsamples = 25\nvalue = 81.508"] ;
211 -> 212 ;
213 [label="mse = 4.22\nsamples = 54\nvalue = 79.726"] ;
211 -> 213 ;
214 [label="czname <= 483.5\nmse = 8.047\nsamples = 42\nvalue = 81.964"] ;
210 -> 214 ;
215 [label="mse = 6.804\nsamples = 37\nvalue = 82.435"] ;
214 -> 215 ;
216 [label="mse = 3.462\nsamples = 5\nvalue = 78.48"] ;
214 -> 216 ;
217 [label="county <= 1185.5\nmse = 6.925\nsamples = 553\nvalue = 82.226"] ;
209 -> 217 ;
218 [label="frac_coll_plus2010 <= 0.709\nmse = 6.279\nsamples = 206\nvalue = 81.577"] ;
217 -> 218 ;
219 [label="mse = 6.072\nsamples = 202\nvalue = 81.5"] ;
218 -> 219 ;
220 [label="mse = 1.07\nsamples = 4\nvalue = 85.5"] ;
218 -> 220 ;
221 [label="state <= 43.5\nmse = 6.909\nsamples = 347\nvalue = 82.612"] ;
217 -> 221 ;
222 [label="mse = 6.241\nsamples = 343\nvalue = 82.669"] ;
221 -> 222 ;
223 [label="mse = 40.273\nsamples = 4\nvalue = 77.75"] ;
221 -> 223 ;
224 [label="frac_coll_plus2010 <= 0.637\nmse = 7.019\nsamples = 3616\nvalue = 82.443"] ;
192 -> 224 ;
225 [label="foreign_share2010 <= 0.083\nmse = 6.18\nsamples = 2558\nvalue = 82.023"] ;
224 -> 225 ;
226 [label="frac_coll_plus2010 <= 0.441\nmse = 5.662\nsamples = 924\nvalue = 81.387"] ;
225 -> 226 ;
227 [label="singleparent_share2010 <= 0.646\nmse = 4.754\nsamples = 313\nvalue = 80.765"] ;
226 -> 227 ;
228 [label="mse = 4.545\nsamples = 312\nvalue = 80.792"] ;
227 -> 228 ;
229 [label="mse = -0.0\nsamples = 1\nvalue = 72.4"] ;
227 -> 229 ;
230 [label="jobs_highpay_5mi_2015 <= 154700.0\nmse = 5.827\nsamples = 611\nvalue = 81.706"] ;
226 -> 230 ;
231 [label="mse = 5.555\nsamples = 577\nvalue = 81.807"] ;
230 -> 231 ;
232 [label="mse = 7.357\nsamples = 34\nvalue = 79.997"] ;
230 -> 232 ;
233 [label="frac_coll_plus2010 <= 0.44\nmse = 6.115\nsamples = 1634\nvalue = 82.383"] ;
225 -> 233 ;
234 [label="foreign_share2010 <= 0.314\nmse = 5.239\nsamples = 515\nvalue = 81.74"] ;
233 -> 234 ;
235 [label="mse = 5.418\nsamples = 420\nvalue = 81.533"] ;
234 -> 235 ;
236 [label="mse = 3.423\nsamples = 95\nvalue = 82.655"] ;
234 -> 236 ;
237 [label="jobs_highpay_5mi_2015 <= 426191.5\nmse = 6.241\nsamples = 1119\nvalue = 82.679"] ;
233 -> 237 ;
238 [label="mse = 5.962\nsamples = 1086\nvalue = 82.746"] ;
237 -> 238 ;
239 [label="mse = 10.376\nsamples = 33\nvalue = 80.464"] ;
237 -> 239 ;
240 [label="frac_coll_plus2010 <= 0.806\nmse = 7.593\nsamples = 1058\nvalue = 83.457"] ;
224 -> 240 ;
241 [label="czname <= 290.5\nmse = 7.241\nsamples = 931\nvalue = 83.277"] ;
240 -> 241 ;
242 [label="popdensity2010 <= 8083.982\nmse = 6.158\nsamples = 310\nvalue = 82.653"] ;
241 -> 242 ;
243 [label="mse = 5.46\nsamples = 279\nvalue = 82.918"] ;
242 -> 243 ;
244 [label="mse = 6.131\nsamples = 31\nvalue = 80.271"] ;
242 -> 244 ;
245 [label="job_density_2013 <= 4751.459\nmse = 7.491\nsamples = 621\nvalue = 83.588"] ;
241 -> 245 ;
246 [label="mse = 6.661\nsamples = 477\nvalue = 83.87"] ;
245 -> 246 ;
247 [label="mse = 9.099\nsamples = 144\nvalue = 82.652"] ;
245 -> 247 ;
248 [label="foreign_share2010 <= 0.101\nmse = 8.179\nsamples = 127\nvalue = 84.782"] ;
240 -> 248 ;
249 [label="job_density_2013 <= 44102.342\nmse = 5.231\nsamples = 38\nvalue = 83.155"] ;
248 -> 249 ;
250 [label="mse = 4.549\nsamples = 37\nvalue = 83.008"] ;
249 -> 250 ;
251 [label="mse = 0.0\nsamples = 1\nvalue = 88.6"] ;
249 -> 251 ;
252 [label="tract <= 10249.5\nmse = 7.826\nsamples = 89\nvalue = 85.476"] ;
248 -> 252 ;
253 [label="mse = 6.987\nsamples = 80\nvalue = 85.149"] ;
252 -> 253 ;
254 [label="mse = 5.843\nsamples = 9\nvalue = 88.389"] ;
252 -> 254 ;
}